/*---------------------------------------------------------------------------------------------
 *  Copyright (c) Microsoft Corporation. All rights reserved.
 *  Licensed under the MIT License. See License.txt in the project root for license information.
 *--------------------------------------------------------------------------------------------*/

export function multilineModelPredict(input: number[]): number[] {
	let var0: number;
	if (input[13] > 1e-35) {
		if (input[3] > 1.5000000000000002) {
			if (input[8] > 427.50000000000006) {
				if (input[9] > 13.500000000000002) {
					if (input[121] > 1e-35) {
						var0 = -0.3793786744885956;
					} else {
						if (input[149] > 1e-35) {
							var0 = -0.34717430705356905;
						} else {
							var0 = -0.26126834451035963;
						}
					}
				} else {
					var0 = -0.2431318366096852;
				}
			} else {
				if (input[5] > 888.5000000000001) {
					var0 = -0.20600463586387135;
				} else {
					var0 = -0.2568037008471491;
				}
			}
		} else {
			if (input[308] > 1e-35) {
				var0 = -0.2363064824497454;
			} else {
				if (input[8] > 370.50000000000006) {
					var0 = -0.37470755210284723;
				} else {
					var0 = -0.321978453730494;
				}
			}
		}
	} else {
		if (input[3] > 24.500000000000004) {
			if (input[23] > 1e-35) {
				if (input[131] > 1e-35) {
					var0 = -0.26259136509758885;
				} else {
					var0 = -0.3096719634039438;
				}
			} else {
				if (input[4] > 30.500000000000004) {
					if (input[9] > 18.500000000000004) {
						var0 = -0.34254903852890883;
					} else {
						if (input[2] > 98.50000000000001) {
							var0 = -0.41585250791146294;
						} else {
							var0 = -0.3673574858887241;
						}
					}
				} else {
					if (input[9] > 6.500000000000001) {
						var0 = -0.31688079287876225;
					} else {
						if (input[31] > 1e-35) {
							var0 = -0.29110977864003823;
						} else {
							if (input[308] > 1e-35) {
								var0 = -0.3201411739040839;
							} else {
								var0 = -0.36874023066055506;
							}
						}
					}
				}
			}
		} else {
			if (input[8] > 691.5000000000001) {
				if (input[82] > 1e-35) {
					var0 = -0.41318393149040566;
				} else {
					if (input[133] > 1e-35) {
						var0 = -0.3741272613525161;
					} else {
						if (input[32] > 1e-35) {
							var0 = -0.4112378041027121;
						} else {
							if (input[227] > 1e-35) {
								var0 = -0.37726615155719356;
							} else {
								if (input[10] > 3.5000000000000004) {
									var0 = -0.3164502293560397;
								} else {
									var0 = -0.2930071546509045;
								}
							}
						}
					}
				}
			} else {
				if (input[9] > 13.500000000000002) {
					var0 = -0.277366858539218;
				} else {
					if (input[308] > 1e-35) {
						if (input[4] > 10.500000000000002) {
							var0 = -0.30975610686807187;
						} else {
							if (input[4] > 1.5000000000000002) {
								var0 = -0.2549142136728043;
							} else {
								var0 = -0.3271325650785176;
							}
						}
					} else {
						if (input[127] > 1e-35) {
							if (input[0] > 1937.5000000000002) {
								var0 = -0.2533046188098832;
							} else {
								var0 = -0.325520883579;
							}
						} else {
							var0 = -0.331628896481776;
						}
					}
				}
			}
		}
	}
	let var1: number;
	if (input[13] > 1e-35) {
		if (input[3] > 1.5000000000000002) {
			if (input[8] > 546.5000000000001) {
				if (input[9] > 13.500000000000002) {
					var1 = 0.031231253521808708;
				} else {
					var1 = 0.05380836288014532;
				}
			} else {
				if (input[5] > 423.00000000000006) {
					if (input[8] > 114.50000000000001) {
						var1 = 0.06751619128429062;
					} else {
						var1 = 0.09625089153176467;
					}
				} else {
					var1 = 0.027268163053989804;
				}
			}
		} else {
			if (input[308] > 1e-35) {
				var1 = 0.060174483556283756;
			} else {
				var1 = -0.049062854038919135;
			}
		}
	} else {
		if (input[3] > 24.500000000000004) {
			if (input[23] > 1e-35) {
				if (input[4] > 63.50000000000001) {
					var1 = -0.03969241799174589;
				} else {
					var1 = 0.01086816842550381;
				}
			} else {
				if (input[31] > 1e-35) {
					var1 = -0.003284694817583201;
				} else {
					if (input[9] > 6.500000000000001) {
						if (input[4] > 30.500000000000004) {
							var1 = -0.04224490699947552;
						} else {
							var1 = -0.011834162944360616;
						}
					} else {
						if (input[308] > 1e-35) {
							if (input[32] > 1e-35) {
								var1 = -0.13448447971850278;
							} else {
								var1 = -0.019569456707046823;
							}
						} else {
							if (input[19] > 1e-35) {
								if (input[9] > 1.5000000000000002) {
									var1 = -0.07256260662659254;
								} else {
									if (input[4] > 60.50000000000001) {
										var1 = -0.08227503453609311;
									} else {
										var1 = -0.020596416747563847;
									}
								}
							} else {
								var1 = -0.07396549241564149;
							}
						}
					}
				}
			}
		} else {
			if (input[8] > 691.5000000000001) {
				if (input[82] > 1e-35) {
					var1 = -0.10046536995362734;
				} else {
					if (input[133] > 1e-35) {
						var1 = -0.06407649822752297;
					} else {
						if (input[225] > 1e-35) {
							var1 = 0.08035785003303324;
						} else {
							if (input[92] > 1e-35) {
								var1 = 0.018901360933204676;
							} else {
								if (input[20] > 1e-35) {
									var1 = 0.05252546973665552;
								} else {
									if (input[8] > 2592.5000000000005) {
										var1 = -0.040543705016462955;
									} else {
										var1 = -0.011236043818320725;
									}
								}
							}
						}
					}
				}
			} else {
				if (input[9] > 17.500000000000004) {
					var1 = 0.025560632674895334;
				} else {
					if (input[308] > 1e-35) {
						if (input[0] > 1847.5000000000002) {
							var1 = 0.03527165701669741;
						} else {
							var1 = -0.0071847350825815035;
						}
					} else {
						if (input[127] > 1e-35) {
							var1 = 0.024373016379595405;
						} else {
							if (input[9] > 2.5000000000000004) {
								var1 = -0.0035090719709448288;
							} else {
								var1 = -0.03514829488063766;
							}
						}
					}
				}
			}
		}
	}
	let var2: number;
	if (input[13] > 1e-35) {
		if (input[3] > 1.5000000000000002) {
			if (input[8] > 546.5000000000001) {
				var2 = 0.03848674861536988;
			} else {
				if (input[5] > 423.00000000000006) {
					if (input[8] > 114.50000000000001) {
						if (input[9] > 56.50000000000001) {
							var2 = -0.003764520033319488;
						} else {
							var2 = 0.06570817919969299;
						}
					} else {
						if (input[4] > 61.50000000000001) {
							var2 = 0.028346156293069538;
						} else {
							var2 = 0.0908154644362606;
						}
					}
				} else {
					var2 = 0.02445594243234816;
				}
			}
		} else {
			if (input[308] > 1e-35) {
				if (input[8] > 65.50000000000001) {
					var2 = 0.0019305229020073053;
				} else {
					var2 = 0.09279357295883772;
				}
			} else {
				var2 = -0.04458984161917124;
			}
		}
	} else {
		if (input[3] > 24.500000000000004) {
			if (input[23] > 1e-35) {
				var2 = 0.0027405390271277013;
			} else {
				if (input[4] > 29.500000000000004) {
					if (input[52] > 1e-35) {
						var2 = 0.044727478132905285;
					} else {
						if (input[115] > 1e-35) {
							var2 = 0.10245804828855934;
						} else {
							if (input[9] > 17.500000000000004) {
								var2 = -0.03353173647469207;
							} else {
								if (input[2] > 98.50000000000001) {
									var2 = -0.10048106638102179;
								} else {
									var2 = -0.05484231104348874;
								}
							}
						}
					}
				} else {
					if (input[31] > 1e-35) {
						var2 = 0.016807537467116516;
					} else {
						if (input[9] > 6.500000000000001) {
							var2 = -0.012113620535295137;
						} else {
							if (input[4] > 8.500000000000002) {
								if (input[308] > 1e-35) {
									var2 = -0.01882594250504289;
								} else {
									var2 = -0.05585658862796076;
								}
							} else {
								var2 = 0.04279591277938338;
							}
						}
					}
				}
			}
		} else {
			if (input[8] > 691.5000000000001) {
				if (input[82] > 1e-35) {
					var2 = -0.09262278043707878;
				} else {
					if (input[133] > 1e-35) {
						var2 = -0.058454257768893625;
					} else {
						if (input[32] > 1e-35) {
							var2 = -0.09769348447126434;
						} else {
							if (input[25] > 1e-35) {
								var2 = -0.0725430043727677;
							} else {
								if (input[122] > 1e-35) {
									var2 = -0.10047841601578077;
								} else {
									var2 = -0.00580671054458958;
								}
							}
						}
					}
				}
			} else {
				if (input[9] > 13.500000000000002) {
					var2 = 0.021399199032818294;
				} else {
					if (input[308] > 1e-35) {
						if (input[4] > 10.500000000000002) {
							var2 = -0.0076376731757173515;
						} else {
							var2 = 0.03394923033036848;
						}
					} else {
						if (input[127] > 1e-35) {
							var2 = 0.02070489091204209;
						} else {
							var2 = -0.02290162726126496;
						}
					}
				}
			}
		}
	}
	let var3: number;
	if (input[13] > 1e-35) {
		if (input[3] > 1.5000000000000002) {
			if (input[8] > 892.5000000000001) {
				if (input[9] > 21.500000000000004) {
					var3 = 0.010230295672324606;
				} else {
					var3 = 0.038540509248742805;
				}
			} else {
				if (input[8] > 125.50000000000001) {
					if (input[1] > 49.50000000000001) {
						var3 = 0.03086356292895467;
					} else {
						var3 = 0.057128750867458604;
					}
				} else {
					if (input[5] > 888.5000000000001) {
						var3 = 0.07861602941396924;
					} else {
						var3 = 0.030523262699070908;
					}
				}
			}
		} else {
			if (input[308] > 1e-35) {
				var3 = 0.048236117667577356;
			} else {
				if (input[8] > 370.50000000000006) {
					var3 = -0.05642125069212264;
				} else {
					var3 = -0.007232836777168195;
				}
			}
		}
	} else {
		if (input[3] > 24.500000000000004) {
			if (input[23] > 1e-35) {
				if (input[131] > 1e-35) {
					var3 = 0.03640661467213915;
				} else {
					var3 = -0.005889820723907028;
				}
			} else {
				if (input[31] > 1e-35) {
					var3 = -0.0009007166998276938;
				} else {
					if (input[9] > 6.500000000000001) {
						var3 = -0.022590340093882378;
					} else {
						if (input[308] > 1e-35) {
							if (input[32] > 1e-35) {
								var3 = -0.1215445089091064;
							} else {
								var3 = -0.01435612266219722;
							}
						} else {
							if (input[19] > 1e-35) {
								if (input[9] > 1.5000000000000002) {
									var3 = -0.061555513040777825;
								} else {
									if (input[4] > 60.50000000000001) {
										var3 = -0.07053475504569347;
									} else {
										var3 = -0.013733369453963092;
									}
								}
							} else {
								var3 = -0.06302097189114152;
							}
						}
					}
				}
			}
		} else {
			if (input[227] > 1e-35) {
				var3 = -0.05820440333190048;
			} else {
				if (input[8] > 683.5000000000001) {
					if (input[82] > 1e-35) {
						var3 = -0.08466979526809346;
					} else {
						if (input[10] > 24.500000000000004) {
							var3 = -0.017092159721119944;
						} else {
							if (input[92] > 1e-35) {
								var3 = 0.03592901452463749;
							} else {
								var3 = -0.00359310519524756;
							}
						}
					}
				} else {
					if (input[5] > 1809.5000000000002) {
						if (input[243] > 1e-35) {
							var3 = -0.03963116207386097;
						} else {
							if (input[118] > 1e-35) {
								var3 = -0.09483996283536394;
							} else {
								if (input[217] > 1e-35) {
									var3 = -0.03394542089519989;
								} else {
									if (input[242] > 1e-35) {
										var3 = -0.07985899422287938;
									} else {
										var3 = 0.019706602160656964;
									}
								}
							}
						}
					} else {
						if (input[9] > 12.500000000000002) {
							var3 = 0.014072998937735146;
						} else {
							var3 = -0.021156294523894684;
						}
					}
				}
			}
		}
	}
	let var4: number;
	if (input[13] > 1e-35) {
		if (input[3] > 1.5000000000000002) {
			if (input[8] > 892.5000000000001) {
				if (input[9] > 21.500000000000004) {
					var4 = 0.009197756540516563;
				} else {
					var4 = 0.03458896869535166;
				}
			} else {
				if (input[5] > 5082.500000000001) {
					var4 = 0.08265545468131008;
				} else {
					if (input[131] > 1e-35) {
						var4 = 0.0740738432473315;
					} else {
						var4 = 0.045159136632942756;
					}
				}
			}
		} else {
			if (input[8] > 319.50000000000006) {
				var4 = -0.04653401534465376;
			} else {
				if (input[7] > 3.5000000000000004) {
					if (input[0] > 1230.5000000000002) {
						if (input[0] > 2579.5000000000005) {
							var4 = -0.011400839766681709;
						} else {
							var4 = 0.11149800187510031;
						}
					} else {
						var4 = -0.08683250977599462;
					}
				} else {
					var4 = 0.08355310136724753;
				}
			}
		}
	} else {
		if (input[4] > 23.500000000000004) {
			if (input[23] > 1e-35) {
				if (input[131] > 1e-35) {
					var4 = 0.040389083779932555;
				} else {
					var4 = -0.009887614274108602;
				}
			} else {
				if (input[52] > 1e-35) {
					var4 = 0.03705353499757327;
				} else {
					if (input[9] > 6.500000000000001) {
						var4 = -0.025401260429257562;
					} else {
						if (input[2] > 98.50000000000001) {
							var4 = -0.09237673187534504;
						} else {
							var4 = -0.04298556869281803;
						}
					}
				}
			}
		} else {
			if (input[222] > 1e-35) {
				var4 = -0.045221965895986184;
			} else {
				if (input[8] > 691.5000000000001) {
					if (input[133] > 1e-35) {
						var4 = -0.05435318330148897;
					} else {
						if (input[128] > 1e-35) {
							var4 = -0.08672907303184191;
						} else {
							if (input[227] > 1e-35) {
								var4 = -0.05568304584186561;
							} else {
								if (input[122] > 1e-35) {
									var4 = -0.09623059693538563;
								} else {
									if (input[225] > 1e-35) {
										var4 = 0.07558331642202279;
									} else {
										if (input[82] > 1e-35) {
											var4 = -0.07360566227233566;
										} else {
											var4 = -0.005646164647395919;
										}
									}
								}
							}
						}
					}
				} else {
					if (input[242] > 1e-35) {
						var4 = -0.08203758341228108;
					} else {
						if (input[9] > 13.500000000000002) {
							var4 = 0.018726123829696042;
						} else {
							if (input[308] > 1e-35) {
								if (input[4] > 10.500000000000002) {
									var4 = -0.011153942154062704;
								} else {
									var4 = 0.03132858912391067;
								}
							} else {
								if (input[127] > 1e-35) {
									var4 = 0.021455228822345174;
								} else {
									if (input[23] > 1e-35) {
										var4 = 0.01959966745346997;
									} else {
										var4 = -0.021764790177579325;
									}
								}
							}
						}
					}
				}
			}
		}
	}
	let var5: number;
	if (input[13] > 1e-35) {
		if (input[3] > 1.5000000000000002) {
			if (input[8] > 284.50000000000006) {
				if (input[121] > 1e-35) {
					if (input[18] > 1e-35) {
						var5 = 0.07547602514276922;
					} else {
						var5 = -0.08529678832140396;
					}
				} else {
					var5 = 0.030314822344598043;
				}
			} else {
				if (input[5] > 888.5000000000001) {
					if (input[4] > 61.50000000000001) {
						var5 = 0.011143589009415464;
					} else {
						var5 = 0.0654700456802118;
					}
				} else {
					var5 = 0.021794712646632755;
				}
			}
		} else {
			if (input[308] > 1e-35) {
				var5 = 0.04231872551095028;
			} else {
				var5 = -0.034381999950549455;
			}
		}
	} else {
		if (input[4] > 23.500000000000004) {
			if (input[23] > 1e-35) {
				if (input[4] > 63.50000000000001) {
					var5 = -0.03678981254332261;
				} else {
					var5 = 0.010518160384496255;
				}
			} else {
				if (input[8] > 825.5000000000001) {
					var5 = -0.04506534842082387;
				} else {
					if (input[9] > 38.50000000000001) {
						var5 = 0.01004983052203438;
					} else {
						var5 = -0.030580958620701027;
					}
				}
			}
		} else {
			if (input[39] > 1e-35) {
				var5 = -0.12802435021505382;
			} else {
				if (input[8] > 691.5000000000001) {
					if (input[23] > 1e-35) {
						if (input[203] > 1e-35) {
							if (input[4] > 6.500000000000001) {
								var5 = 0.030426957004611704;
							} else {
								var5 = -0.0726407693060581;
							}
						} else {
							var5 = 0.017395521646964375;
						}
					} else {
						if (input[4] > 7.500000000000001) {
							if (input[0] > 93.50000000000001) {
								if (input[9] > 7.500000000000001) {
									var5 = -0.008024349629981291;
								} else {
									if (input[31] > 1e-35) {
										var5 = 0.01296539930850471;
									} else {
										if (input[308] > 1e-35) {
											var5 = -0.012855016509024084;
										} else {
											var5 = -0.04564527976851505;
										}
									}
								}
							} else {
								var5 = -0.15681420504058596;
							}
						} else {
							if (input[10] > 4.500000000000001) {
								if (input[243] > 1e-35) {
									var5 = -0.1012064426380198;
								} else {
									var5 = -0.0062808850924854194;
								}
							} else {
								var5 = 0.030706323726162416;
							}
						}
					}
				} else {
					if (input[9] > 13.500000000000002) {
						var5 = 0.017081636133736405;
					} else {
						if (input[308] > 1e-35) {
							if (input[4] > 10.500000000000002) {
								var5 = -0.009306613091760644;
							} else {
								if (input[4] > 1.5000000000000002) {
									var5 = 0.03655523200850989;
								} else {
									var5 = -0.02671654212893341;
								}
							}
						} else {
							if (input[127] > 1e-35) {
								var5 = 0.019261510468604387;
							} else {
								var5 = -0.017627818570628936;
							}
						}
					}
				}
			}
		}
	}
	let var6: number;
	if (input[13] > 1e-35) {
		if (input[3] > 1.5000000000000002) {
			if (input[8] > 892.5000000000001) {
				if (input[308] > 1e-35) {
					var6 = 0.036100405995889276;
				} else {
					var6 = 0.011709313297015793;
				}
			} else {
				if (input[0] > 119.50000000000001) {
					if (input[8] > 125.50000000000001) {
						var6 = 0.03622542297472574;
					} else {
						var6 = 0.05595579157301536;
					}
				} else {
					var6 = -0.02234751038146796;
				}
			}
		} else {
			if (input[8] > 319.50000000000006) {
				var6 = -0.040132029478400735;
			} else {
				if (input[7] > 3.5000000000000004) {
					if (input[0] > 1230.5000000000002) {
						if (input[0] > 2579.5000000000005) {
							var6 = -0.009306153573847916;
						} else {
							var6 = 0.10058509567064988;
						}
					} else {
						var6 = -0.0785668890966017;
					}
				} else {
					if (input[9] > 28.500000000000004) {
						var6 = -0.04781977604130416;
					} else {
						var6 = 0.09753292614937459;
					}
				}
			}
		}
	} else {
		if (input[4] > 23.500000000000004) {
			if (input[131] > 1e-35) {
				var6 = 0.02372493254975127;
			} else {
				if (input[148] > 1e-35) {
					var6 = 0.028103095989516644;
				} else {
					if (input[4] > 58.50000000000001) {
						if (input[10] > 1e-35) {
							var6 = -0.05000852203469597;
						} else {
							var6 = 0.02922366846119705;
						}
					} else {
						if (input[23] > 1e-35) {
							var6 = -0.0026335076988151292;
						} else {
							var6 = -0.03073993752935585;
						}
					}
				}
			}
		} else {
			if (input[222] > 1e-35) {
				var6 = -0.03867374428185713;
			} else {
				if (input[32] > 1e-35) {
					var6 = -0.07220729365053084;
				} else {
					if (input[39] > 1e-35) {
						var6 = -0.11624524614351733;
					} else {
						if (input[8] > 691.5000000000001) {
							if (input[133] > 1e-35) {
								var6 = -0.04836360271198036;
							} else {
								if (input[8] > 4968.500000000001) {
									var6 = -0.10873681915578029;
								} else {
									if (input[149] > 1e-35) {
										var6 = -0.11847484033769298;
									} else {
										if (input[122] > 1e-35) {
											var6 = -0.08916172460307559;
										} else {
											if (input[82] > 1e-35) {
												var6 = -0.06774726602152634;
											} else {
												var6 = -0.0033469147714351327;
											}
										}
									}
								}
							}
						} else {
							if (input[126] > 1e-35) {
								var6 = -0.09474445392080015;
							} else {
								if (input[8] > 131.50000000000003) {
									if (input[118] > 1e-35) {
										var6 = -0.09002547031023511;
									} else {
										var6 = 0.015475385187009489;
									}
								} else {
									if (input[25] > 1e-35) {
										var6 = -0.08175501232759151;
									} else {
										var6 = -0.000429679055394914;
									}
								}
							}
						}
					}
				}
			}
		}
	}
	let var7: number;
	if (input[13] > 1e-35) {
		if (input[3] > 1.5000000000000002) {
			if (input[8] > 546.5000000000001) {
				var7 = 0.021942996005324917;
			} else {
				var7 = 0.042349138084484074;
			}
		} else {
			if (input[308] > 1e-35) {
				var7 = 0.036507270845732874;
			} else {
				var7 = -0.028981850556764995;
			}
		}
	} else {
		if (input[3] > 24.500000000000004) {
			if (input[23] > 1e-35) {
				var7 = 0.00210930790963475;
			} else {
				if (input[31] > 1e-35) {
					var7 = 0.006825358293027163;
				} else {
					if (input[9] > 6.500000000000001) {
						var7 = -0.013772084269062394;
					} else {
						if (input[308] > 1e-35) {
							var7 = -0.008307929099892574;
						} else {
							if (input[19] > 1e-35) {
								var7 = -0.027706313312904487;
							} else {
								var7 = -0.04891108984170914;
							}
						}
					}
				}
			}
		} else {
			if (input[134] > 1e-35) {
				var7 = -0.0605730733844732;
			} else {
				if (input[25] > 1e-35) {
					var7 = -0.05347926493253117;
				} else {
					if (input[227] > 1e-35) {
						var7 = -0.049415829249003666;
					} else {
						if (input[32] > 1e-35) {
							var7 = -0.06807799662179595;
						} else {
							if (input[308] > 1e-35) {
								if (input[4] > 10.500000000000002) {
									if (input[2] > 13.500000000000002) {
										var7 = -0.00016302718260794637;
									} else {
										var7 = -0.10247095758122947;
									}
								} else {
									if (input[210] > 1e-35) {
										var7 = -0.022149002072787024;
									} else {
										if (input[95] > 1e-35) {
											var7 = 0.15222631630626304;
										} else {
											var7 = 0.027393884520465712;
										}
									}
								}
							} else {
								if (input[9] > 7.500000000000001) {
									if (input[225] > 1e-35) {
										var7 = 0.13483346577752245;
									} else {
										if (input[3] > 9.500000000000002) {
											if (input[243] > 1e-35) {
												var7 = -0.045352728133789516;
											} else {
												if (input[8] > 683.5000000000001) {
													var7 = 0.00474372227519902;
												} else {
													var7 = 0.02635476098707525;
												}
											}
										} else {
											if (input[92] > 1e-35) {
												var7 = 0.05659380819933452;
											} else {
												if (input[105] > 1e-35) {
													var7 = 0.07431443210341222;
												} else {
													if (input[186] > 1e-35) {
														var7 = 0.0915821133384904;
													} else {
														var7 = -0.016414750130401053;
													}
												}
											}
										}
									}
								} else {
									if (input[127] > 1e-35) {
										var7 = 0.011824693641866162;
									} else {
										if (input[23] > 1e-35) {
											var7 = 0.0228468674288774;
										} else {
											if (input[284] > 1e-35) {
												var7 = 0.06606936863302432;
											} else {
												var7 = -0.02872463273902358;
											}
										}
									}
								}
							}
						}
					}
				}
			}
		}
	}
	let var8: number;
	if (input[13] > 1e-35) {
		if (input[3] > 1.5000000000000002) {
			if (input[8] > 125.50000000000001) {
				if (input[288] > 1e-35) {
					var8 = -0.019844363904157558;
				} else {
					if (input[1] > 50.50000000000001) {
						if (input[131] > 1e-35) {
							var8 = 0.044961338592245194;
						} else {
							var8 = 0.003659599513761676;
						}
					} else {
						if (input[121] > 1e-35) {
							var8 = -0.04057103630479994;
						} else {
							var8 = 0.03158560697078578;
						}
					}
				}
			} else {
				if (input[0] > 421.50000000000006) {
					if (input[4] > 61.50000000000001) {
						var8 = -0.0003708603406529278;
					} else {
						var8 = 0.05331312264472391;
					}
				} else {
					var8 = 0.0006575958601218936;
				}
			}
		} else {
			if (input[8] > 319.50000000000006) {
				var8 = -0.034654694051901545;
			} else {
				if (input[7] > 3.5000000000000004) {
					if (input[0] > 1230.5000000000002) {
						if (input[0] > 2579.5000000000005) {
							var8 = -0.0076053515916517005;
						} else {
							var8 = 0.09116695486305336;
						}
					} else {
						var8 = -0.07137458699162028;
					}
				} else {
					var8 = 0.06633130654035282;
				}
			}
		}
	} else {
		if (input[4] > 29.500000000000004) {
			if (input[23] > 1e-35) {
				if (input[4] > 63.50000000000001) {
					var8 = -0.0308520802187302;
				} else {
					var8 = 0.013156423968295541;
				}
			} else {
				if (input[115] > 1e-35) {
					var8 = 0.11581171687488252;
				} else {
					if (input[52] > 1e-35) {
						if (input[10] > 22.500000000000004) {
							var8 = 0.12264179915175587;
						} else {
							var8 = -0.021905727233873535;
						}
					} else {
						if (input[8] > 799.5000000000001) {
							var8 = -0.04181869575935412;
						} else {
							var8 = -0.023695901673350575;
						}
					}
				}
			}
		} else {
			if (input[222] > 1e-35) {
				var8 = -0.034612899265371776;
			} else {
				if (input[8] > 691.5000000000001) {
					if (input[9] > 98.50000000000001) {
						var8 = -0.06892116536821917;
					} else {
						if (input[149] > 1e-35) {
							var8 = -0.11194586444154514;
						} else {
							if (input[133] > 1e-35) {
								var8 = -0.04269583234000504;
							} else {
								if (input[128] > 1e-35) {
									var8 = -0.0644631966969502;
								} else {
									if (input[8] > 4968.500000000001) {
										var8 = -0.09650726096330133;
									} else {
										var8 = -0.004219129180139438;
									}
								}
							}
						}
					}
				} else {
					if (input[126] > 1e-35) {
						var8 = -0.08038306745347751;
					} else {
						if (input[5] > 1809.5000000000002) {
							var8 = 0.009265335288169993;
						} else {
							if (input[9] > 2.5000000000000004) {
								var8 = 0.006447645462117438;
							} else {
								var8 = -0.021047132609551503;
							}
						}
					}
				}
			}
		}
	}
	let var9: number;
	if (input[13] > 1e-35) {
		if (input[3] > 1.5000000000000002) {
			if (input[9] > 21.500000000000004) {
				if (input[121] > 1e-35) {
					var9 = -0.08436540015142402;
				} else {
					if (input[8] > 1861.5000000000002) {
						var9 = -0.01621425699342421;
					} else {
						var9 = 0.01878613821895428;
					}
				}
			} else {
				var9 = 0.031052879158242532;
			}
		} else {
			if (input[8] > 319.50000000000006) {
				var9 = -0.031536619360997865;
			} else {
				if (input[7] > 3.5000000000000004) {
					var9 = -0.004510586962343298;
				} else {
					var9 = 0.0596524941011746;
				}
			}
		}
	} else {
		if (input[4] > 18.500000000000004) {
			if (input[23] > 1e-35) {
				var9 = 0.004757490541310808;
			} else {
				if (input[9] > 6.500000000000001) {
					var9 = -0.008842393772207996;
				} else {
					if (input[31] > 1e-35) {
						var9 = 0.0010536183837006993;
					} else {
						if (input[308] > 1e-35) {
							var9 = -0.008145882815435419;
						} else {
							if (input[2] > 98.50000000000001) {
								var9 = -0.08404937622173021;
							} else {
								if (input[276] > 1e-35) {
									var9 = 0.0020072791321856663;
								} else {
									if (input[19] > 1e-35) {
										var9 = -0.023031820639490178;
									} else {
										var9 = -0.04553314326377875;
									}
								}
							}
						}
					}
				}
			}
		} else {
			if (input[8] > 2134.5000000000005) {
				var9 = -0.02244583113572251;
			} else {
				if (input[134] > 1e-35) {
					var9 = -0.05592137394753121;
				} else {
					if (input[308] > 1e-35) {
						if (input[49] > 1e-35) {
							var9 = 0.09989109704064947;
						} else {
							if (input[4] > 10.500000000000002) {
								if (input[2] > 13.500000000000002) {
									var9 = -0.00447733056482096;
								} else {
									var9 = -0.10191061664873849;
								}
							} else {
								var9 = 0.021765308380331864;
							}
						}
					} else {
						if (input[9] > 7.500000000000001) {
							if (input[118] > 1e-35) {
								var9 = -0.07570059131536411;
							} else {
								if (input[243] > 1e-35) {
									var9 = -0.040983393346598646;
								} else {
									if (input[3] > 9.500000000000002) {
										var9 = 0.014763759061483812;
									} else {
										if (input[92] > 1e-35) {
											var9 = 0.05136368898963024;
										} else {
											var9 = -0.008162398981149495;
										}
									}
								}
							}
						} else {
							if (input[127] > 1e-35) {
								var9 = 0.013999119696708346;
							} else {
								if (input[23] > 1e-35) {
									if (input[20] > 1e-35) {
										var9 = 0.14138985500120907;
									} else {
										var9 = 0.008668274102844162;
									}
								} else {
									if (input[284] > 1e-35) {
										var9 = 0.06356484011042893;
									} else {
										var9 = -0.024781304572706303;
									}
								}
							}
						}
					}
				}
			}
		}
	}
	let var10: number;
	if (input[13] > 1e-35) {
		if (input[3] > 8.500000000000002) {
			if (input[8] > 892.5000000000001) {
				if (input[0] > 384.50000000000006) {
					var10 = 0.014387526569215037;
				} else {
					if (input[8] > 2266.5000000000005) {
						var10 = -0.1397298649743087;
					} else {
						var10 = 0.007953931014097788;
					}
				}
			} else {
				if (input[0] > 119.50000000000001) {
					if (input[4] > 61.50000000000001) {
						var10 = 0.0029819092211896296;
					} else {
						if (input[218] > 1e-35) {
							var10 = 0.08450459375645737;
						} else {
							var10 = 0.031646488019280654;
						}
					}
				} else {
					var10 = -0.03544960151460596;
				}
			}
		} else {
			if (input[9] > 9.500000000000002) {
				var10 = -0.026002317735915183;
			} else {
				if (input[7] > 1.5000000000000002) {
					var10 = 0.005074258810794793;
				} else {
					var10 = 0.0745247650477651;
				}
			}
		}
	} else {
		if (input[4] > 29.500000000000004) {
			if (input[131] > 1e-35) {
				var10 = 0.023269218675640847;
			} else {
				if (input[148] > 1e-35) {
					var10 = 0.03812942399144545;
				} else {
					if (input[115] > 1e-35) {
						var10 = 0.10512283476967227;
					} else {
						var10 = -0.02607307479736138;
					}
				}
			}
		} else {
			if (input[227] > 1e-35) {
				var10 = -0.036576708299046294;
			} else {
				if (input[101] > 1e-35) {
					var10 = 0.027948683650881864;
				} else {
					if (input[149] > 1e-35) {
						var10 = -0.08195628451594297;
					} else {
						if (input[50] > 1e-35) {
							var10 = -0.16997544922278504;
						} else {
							if (input[8] > 691.5000000000001) {
								if (input[9] > 101.50000000000001) {
									var10 = -0.06860333850762075;
								} else {
									if (input[225] > 1e-35) {
										var10 = 0.06066641950951723;
									} else {
										if (input[10] > 22.500000000000004) {
											if (input[1] > 29.500000000000004) {
												if (input[127] > 1e-35) {
													var10 = 0.028599705845427533;
												} else {
													var10 = -0.010746719511640914;
												}
											} else {
												if (input[0] > 4877.500000000001) {
													var10 = -0.07251187886096228;
												} else {
													var10 = -0.021299712241446785;
												}
											}
										} else {
											if (input[118] > 1e-35) {
												var10 = -0.11902023760964736;
											} else {
												var10 = 0.000015874469526809387;
											}
										}
									}
								}
							} else {
								if (input[8] > 267.50000000000006) {
									var10 = 0.01317292185402293;
								} else {
									if (input[148] > 1e-35) {
										if (input[9] > 20.500000000000004) {
											var10 = 0.09614842415142123;
										} else {
											var10 = 0.006049073167176467;
										}
									} else {
										if (input[189] > 1e-35) {
											var10 = 0.05562696451900713;
										} else {
											var10 = -0.006257541923837303;
										}
									}
								}
							}
						}
					}
				}
			}
		}
	}
	let var11: number;
	if (input[13] > 1e-35) {
		if (input[9] > 14.500000000000002) {
			if (input[2] > 11.500000000000002) {
				if (input[1] > 71.50000000000001) {
					if (input[8] > 1252.5000000000002) {
						var11 = -0.10069846585436666;
					} else {
						var11 = -0.010577995535809317;
					}
				} else {
					if (input[146] > 1e-35) {
						var11 = -0.008877238274428668;
					} else {
						if (input[280] > 1e-35) {
							var11 = 0.10076055897012692;
						} else {
							if (input[6] > 70.50000000000001) {
								var11 = -0.020603523042565547;
							} else {
								if (input[7] > 1.5000000000000002) {
									var11 = 0.02819095420813202;
								} else {
									var11 = -0.1223354167911277;
								}
							}
						}
					}
				}
			} else {
				var11 = -0.025073583348334844;
			}
		} else {
			if (input[8] > 416.50000000000006) {
				var11 = 0.01718560189149466;
			} else {
				if (input[230] > 1e-35) {
					var11 = 0.12281803224342265;
				} else {
					var11 = 0.03281276971308565;
				}
			}
		}
	} else {
		if (input[4] > 14.500000000000002) {
			if (input[23] > 1e-35) {
				if (input[21] > 1e-35) {
					var11 = -0.13070568109867683;
				} else {
					if (input[4] > 63.50000000000001) {
						var11 = -0.027221825262496814;
					} else {
						var11 = 0.01530862490082352;
					}
				}
			} else {
				if (input[9] > 6.500000000000001) {
					if (input[5] > 4320.500000000001) {
						if (input[2] > 31.500000000000004) {
							var11 = -0.00605574271293711;
						} else {
							var11 = 0.04739407327741249;
						}
					} else {
						var11 = -0.012537528620315956;
					}
				} else {
					if (input[31] > 1e-35) {
						if (input[20] > 1e-35) {
							var11 = 0.1252215087035768;
						} else {
							var11 = 0.003905888677601057;
						}
					} else {
						if (input[52] > 1e-35) {
							var11 = 0.045466299731038815;
						} else {
							if (input[2] > 100.50000000000001) {
								var11 = -0.07815624550168065;
							} else {
								if (input[308] > 1e-35) {
									var11 = -0.007715815250508057;
								} else {
									if (input[276] > 1e-35) {
										if (input[9] > 1.5000000000000002) {
											var11 = -0.03538265083203445;
										} else {
											if (input[18] > 1e-35) {
												var11 = 0.1591211669800727;
											} else {
												var11 = 0.015151475408241136;
											}
										}
									} else {
										if (input[8] > 557.5000000000001) {
											var11 = -0.04225569725456342;
										} else {
											var11 = -0.022455546324243267;
										}
									}
								}
							}
						}
					}
				}
			}
		} else {
			if (input[308] > 1e-35) {
				var11 = 0.01325441736085826;
			} else {
				if (input[197] > 1e-35) {
					var11 = 0.03752194600682512;
				} else {
					if (input[225] > 1e-35) {
						var11 = 0.06583712394533976;
					} else {
						var11 = -0.005205289866839043;
					}
				}
			}
		}
	}
	let var12: number;
	if (input[13] > 1e-35) {
		if (input[9] > 21.500000000000004) {
			if (input[2] > 12.500000000000002) {
				var12 = 0.010264022580774884;
			} else {
				var12 = -0.02335958814489217;
			}
		} else {
			if (input[8] > 416.50000000000006) {
				if (input[3] > 4.500000000000001) {
					if (input[295] > 1e-35) {
						var12 = -0.0936747137352166;
					} else {
						if (input[0] > 384.50000000000006) {
							var12 = 0.019846244507320695;
						} else {
							var12 = -0.0751102554077272;
						}
					}
				} else {
					var12 = -0.026885329334203723;
				}
			} else {
				if (input[0] > 966.5000000000001) {
					if (input[10] > 48.50000000000001) {
						var12 = 0.11654906890054273;
					} else {
						var12 = 0.0346250587613322;
					}
				} else {
					if (input[4] > 39.50000000000001) {
						var12 = -0.08568002378645614;
					} else {
						if (input[9] > 16.500000000000004) {
							var12 = -0.12010535752923689;
						} else {
							var12 = 0.021321923389033808;
						}
					}
				}
			}
		}
	} else {
		if (input[4] > 14.500000000000002) {
			if (input[23] > 1e-35) {
				if (input[21] > 1e-35) {
					var12 = -0.12056431231412057;
				} else {
					if (input[131] > 1e-35) {
						var12 = 0.03652965550568472;
					} else {
						var12 = 0.002563006128791669;
					}
				}
			} else {
				if (input[9] > 6.500000000000001) {
					if (input[30] > 1e-35) {
						var12 = -0.10141481732178981;
					} else {
						var12 = -0.003936457893178248;
					}
				} else {
					if (input[31] > 1e-35) {
						var12 = 0.008215898756249477;
					} else {
						if (input[52] > 1e-35) {
							if (input[0] > 4188.500000000001) {
								var12 = 0.12972828769588213;
							} else {
								var12 = -0.003137412232297087;
							}
						} else {
							if (input[2] > 100.50000000000001) {
								var12 = -0.0730872929087944;
							} else {
								if (input[308] > 1e-35) {
									var12 = -0.006958622747243333;
								} else {
									if (input[35] > 1e-35) {
										if (input[0] > 3707.5000000000005) {
											var12 = 0.07934620723812878;
										} else {
											var12 = -0.018598568353702116;
										}
									} else {
										var12 = -0.030635505446410763;
									}
								}
							}
						}
					}
				}
			}
		} else {
			if (input[128] > 1e-35) {
				var12 = -0.06962290453843294;
			} else {
				if (input[84] > 1e-35) {
					var12 = -0.15290337844960322;
				} else {
					if (input[308] > 1e-35) {
						if (input[8] > 2543.5000000000005) {
							var12 = -0.034938657503885584;
						} else {
							var12 = 0.016339322898966915;
						}
					} else {
						if (input[197] > 1e-35) {
							var12 = 0.03358907965870046;
						} else {
							if (input[18] > 1e-35) {
								var12 = -0.01754013791515288;
							} else {
								var12 = -0.0004944586067698557;
							}
						}
					}
				}
			}
		}
	}
	let var13: number;
	if (input[13] > 1e-35) {
		if (input[308] > 1e-35) {
			if (input[210] > 1e-35) {
				var13 = 0.005888790687820524;
			} else {
				var13 = 0.0429676533834978;
			}
		} else {
			if (input[2] > 7.500000000000001) {
				if (input[0] > 119.50000000000001) {
					if (input[6] > 79.50000000000001) {
						var13 = -0.0224319889201976;
					} else {
						if (input[212] > 1e-35) {
							var13 = 0.06249587051783863;
						} else {
							if (input[8] > 963.5000000000001) {
								if (input[8] > 1156.5000000000002) {
									var13 = 0.010357273289123324;
								} else {
									var13 = -0.029749145161304082;
								}
							} else {
								if (input[218] > 1e-35) {
									var13 = 0.06449336340743606;
								} else {
									var13 = 0.018047654539345502;
								}
							}
						}
					}
				} else {
					var13 = -0.07350502390293116;
				}
			} else {
				var13 = -0.019594829995832414;
			}
		}
	} else {
		if (input[4] > 39.50000000000001) {
			var13 = -0.019338083179859314;
		} else {
			if (input[39] > 1e-35) {
				var13 = -0.10427066919173111;
			} else {
				if (input[222] > 1e-35) {
					if (input[0] > 612.5000000000001) {
						var13 = -0.019197415255018464;
					} else {
						var13 = -0.0836562507048181;
					}
				} else {
					if (input[149] > 1e-35) {
						var13 = -0.07679624472577429;
					} else {
						if (input[32] > 1e-35) {
							var13 = -0.05097506748590604;
						} else {
							if (input[191] > 1e-35) {
								var13 = 0.04670476485250936;
							} else {
								if (input[30] > 1e-35) {
									var13 = -0.05313073892148652;
								} else {
									if (input[8] > 691.5000000000001) {
										if (input[23] > 1e-35) {
											if (input[203] > 1e-35) {
												if (input[4] > 8.500000000000002) {
													var13 = 0.03930363008271334;
												} else {
													var13 = -0.06029171685615689;
												}
											} else {
												var13 = 0.016203086182431294;
											}
										} else {
											if (input[4] > 7.500000000000001) {
												var13 = -0.013824248237085224;
											} else {
												if (input[10] > 4.500000000000001) {
													if (input[94] > 1e-35) {
														var13 = -0.09817668643367765;
													} else {
														if (input[10] > 40.50000000000001) {
															var13 = -0.023558078753593125;
														} else {
															var13 = 0.0065113494780482326;
														}
													}
												} else {
													if (input[8] > 809.5000000000001) {
														if (input[297] > 1e-35) {
															var13 = -0.1352063548573715;
														} else {
															var13 = 0.058203900441270634;
														}
													} else {
														var13 = -0.035243959159285736;
													}
												}
											}
										}
									} else {
										if (input[10] > 59.50000000000001) {
											if (input[1] > 43.50000000000001) {
												var13 = -0.012552876807800442;
											} else {
												var13 = 0.05991247777734298;
											}
										} else {
											var13 = 0.0035893102109330177;
										}
									}
								}
							}
						}
					}
				}
			}
		}
	}
	let var14: number;
	if (input[13] > 1e-35) {
		if (input[9] > 21.500000000000004) {
			if (input[145] > 1e-35) {
				var14 = 0.03507251990078782;
			} else {
				if (input[2] > 14.500000000000002) {
					var14 = 0.004905698363309292;
				} else {
					if (input[8] > 2421.5000000000005) {
						var14 = -0.10306119951984316;
					} else {
						var14 = -0.018951037816654928;
					}
				}
			}
		} else {
			if (input[8] > 416.50000000000006) {
				if (input[3] > 4.500000000000001) {
					if (input[295] > 1e-35) {
						var14 = -0.08503171085833393;
					} else {
						var14 = 0.015130974593044409;
					}
				} else {
					var14 = -0.024425267075198206;
				}
			} else {
				var14 = 0.02624054905103126;
			}
		}
	} else {
		if (input[4] > 19.500000000000004) {
			if (input[131] > 1e-35) {
				var14 = 0.02100191580704534;
			} else {
				if (input[32] > 1e-35) {
					if (input[8] > 2302.5000000000005) {
						var14 = 0.09908783187786288;
					} else {
						var14 = -0.06920877329925636;
					}
				} else {
					if (input[8] > 241.50000000000003) {
						var14 = -0.016756131804203496;
					} else {
						if (input[9] > 33.50000000000001) {
							var14 = 0.04903179955263626;
						} else {
							if (input[217] > 1e-35) {
								var14 = -0.047416847619291644;
							} else {
								var14 = -0.0017200891991431119;
							}
						}
					}
				}
			}
		} else {
			if (input[39] > 1e-35) {
				var14 = -0.10389927604977028;
			} else {
				if (input[134] > 1e-35) {
					var14 = -0.050480365434872866;
				} else {
					if (input[178] > 1e-35) {
						var14 = -0.05167855791556937;
					} else {
						if (input[8] > 2134.5000000000005) {
							var14 = -0.01663197335585307;
						} else {
							if (input[242] > 1e-35) {
								var14 = -0.05361323756615453;
							} else {
								if (input[118] > 1e-35) {
									var14 = -0.05299780866211368;
								} else {
									if (input[10] > 24.500000000000004) {
										if (input[10] > 55.50000000000001) {
											if (input[8] > 764.5000000000001) {
												var14 = -0.0016544848369620534;
											} else {
												var14 = 0.04494144460483587;
											}
										} else {
											var14 = -0.009283616456736156;
										}
									} else {
										if (input[121] > 1e-35) {
											if (input[0] > 4463.500000000001) {
												var14 = 0.051166688553608355;
											} else {
												var14 = -0.06623908820705383;
											}
										} else {
											if (input[84] > 1e-35) {
												var14 = -0.12990936092409747;
											} else {
												if (input[306] > 1e-35) {
													var14 = -0.07020596855118943;
												} else {
													if (input[49] > 1e-35) {
														var14 = 0.06272964802556856;
													} else {
														if (input[192] > 1e-35) {
															var14 = 0.06540204627162581;
														} else {
															var14 = 0.008277910531592885;
														}
													}
												}
											}
										}
									}
								}
							}
						}
					}
				}
			}
		}
	}
	let var15: number;
	if (input[13] > 1e-35) {
		if (input[308] > 1e-35) {
			if (input[210] > 1e-35) {
				var15 = 0.003325460510319164;
			} else {
				var15 = 0.037153108286272905;
			}
		} else {
			if (input[2] > 12.500000000000002) {
				if (input[1] > 124.50000000000001) {
					var15 = -0.09880713344892134;
				} else {
					if (input[7] > 60.50000000000001) {
						if (input[10] > 71.50000000000001) {
							var15 = 0.0697359767152808;
						} else {
							if (input[230] > 1e-35) {
								var15 = 0.06513506845651572;
							} else {
								var15 = -0.02826625276613455;
							}
						}
					} else {
						if (input[5] > 246.50000000000003) {
							if (input[8] > 95.50000000000001) {
								var15 = 0.013616385013146277;
							} else {
								var15 = 0.04171540100223404;
							}
						} else {
							var15 = -0.04360396575094823;
						}
					}
				}
			} else {
				if (input[212] > 1e-35) {
					var15 = 0.025945477945627522;
				} else {
					var15 = -0.019793208261535442;
				}
			}
		}
	} else {
		if (input[4] > 39.50000000000001) {
			if (input[25] > 1e-35) {
				var15 = -0.07856453318384411;
			} else {
				var15 = -0.014803893522351739;
			}
		} else {
			if (input[39] > 1e-35) {
				var15 = -0.09185452630751932;
			} else {
				if (input[149] > 1e-35) {
					var15 = -0.07122426086157027;
				} else {
					if (input[134] > 1e-35) {
						var15 = -0.04231052091434186;
					} else {
						if (input[227] > 1e-35) {
							var15 = -0.029815824273994197;
						} else {
							if (input[50] > 1e-35) {
								var15 = -0.15736496271211153;
							} else {
								if (input[222] > 1e-35) {
									var15 = -0.02360285356956629;
								} else {
									if (input[128] > 1e-35) {
										var15 = -0.03922080193836443;
									} else {
										if (input[136] > 1e-35) {
											var15 = -0.07219685327698587;
										} else {
											if (input[10] > 24.500000000000004) {
												if (input[1] > 8.500000000000002) {
													var15 = -0.0029736170756835783;
												} else {
													var15 = -0.06482902102259112;
												}
											} else {
												if (input[84] > 1e-35) {
													var15 = -0.11340924635708383;
												} else {
													if (input[94] > 1e-35) {
														var15 = -0.03635703457792193;
													} else {
														if (input[118] > 1e-35) {
															var15 = -0.058181913914186034;
														} else {
															if (input[126] > 1e-35) {
																var15 = -0.062030576241517366;
															} else {
																if (input[116] > 1e-35) {
																	var15 = -0.045086301850604006;
																} else {
																	if (input[25] > 1e-35) {
																		var15 = -0.031665223656767286;
																	} else {
																		if (input[203] > 1e-35) {
																			var15 = -0.009444685731407691;
																		} else {
																			var15 = 0.0112265153772187;
																		}
																	}
																}
															}
														}
													}
												}
											}
										}
									}
								}
							}
						}
					}
				}
			}
		}
	}
	let var16: number;
	if (input[13] > 1e-35) {
		if (input[1] > 64.50000000000001) {
			if (input[9] > 14.500000000000002) {
				if (input[9] > 54.50000000000001) {
					var16 = 0.022717227245241684;
				} else {
					var16 = -0.049700413274686266;
				}
			} else {
				var16 = 0.007175776918589741;
			}
		} else {
			if (input[5] > 50.50000000000001) {
				if (input[8] > 61.50000000000001) {
					if (input[21] > 1e-35) {
						var16 = -0.07927556792063156;
					} else {
						if (input[3] > 8.500000000000002) {
							if (input[4] > 23.500000000000004) {
								if (input[281] > 1e-35) {
									var16 = -0.12263724050601095;
								} else {
									var16 = 0.0070743478891288035;
								}
							} else {
								if (input[288] > 1e-35) {
									var16 = -0.050439138582109;
								} else {
									var16 = 0.0255701593657891;
								}
							}
						} else {
							var16 = -0.005812703740580558;
						}
					}
				} else {
					if (input[6] > 49.50000000000001) {
						var16 = -0.008542694147899113;
					} else {
						var16 = 0.035147383686665;
					}
				}
			} else {
				var16 = -0.0960461939274094;
			}
		}
	} else {
		if (input[32] > 1e-35) {
			var16 = -0.04555453745517765;
		} else {
			if (input[222] > 1e-35) {
				if (input[0] > 612.5000000000001) {
					var16 = -0.01800870272656664;
				} else {
					var16 = -0.07817304234604389;
				}
			} else {
				if (input[30] > 1e-35) {
					var16 = -0.05227061750368981;
				} else {
					if (input[25] > 1e-35) {
						if (input[0] > 4449.500000000001) {
							if (input[217] > 1e-35) {
								var16 = 0.08778416018479411;
							} else {
								var16 = -0.026563982720830256;
							}
						} else {
							var16 = -0.05296139548112329;
						}
					} else {
						if (input[50] > 1e-35) {
							var16 = -0.14926464875852247;
						} else {
							if (input[8] > 779.5000000000001) {
								if (input[133] > 1e-35) {
									var16 = -0.036572140520852024;
								} else {
									if (input[183] > 1e-35) {
										var16 = -0.10766853736801459;
									} else {
										var16 = -0.003966794968701808;
									}
								}
							} else {
								if (input[217] > 1e-35) {
									if (input[5] > 5237.500000000001) {
										var16 = 0.09513215942486053;
									} else {
										var16 = -0.03641865277445567;
									}
								} else {
									if (input[10] > 59.50000000000001) {
										var16 = 0.03177172388687933;
									} else {
										if (input[39] > 1e-35) {
											var16 = -0.10234241303898953;
										} else {
											if (input[243] > 1e-35) {
												var16 = -0.02966738115984321;
											} else {
												if (input[190] > 1e-35) {
													var16 = -0.04312785336449181;
												} else {
													if (input[118] > 1e-35) {
														var16 = -0.05808521194081524;
													} else {
														var16 = 0.006720381600740378;
													}
												}
											}
										}
									}
								}
							}
						}
					}
				}
			}
		}
	}
	let var17: number;
	if (input[308] > 1e-35) {
		if (input[5] > 423.00000000000006) {
			if (input[133] > 1e-35) {
				var17 = -0.046284053681928526;
			} else {
				if (input[210] > 1e-35) {
					var17 = 0.000049778070699847876;
				} else {
					if (input[13] > 1e-35) {
						var17 = 0.03328070054739309;
					} else {
						if (input[128] > 1e-35) {
							var17 = -0.054790214922938896;
						} else {
							if (input[126] > 1e-35) {
								var17 = -0.08524792218532945;
							} else {
								var17 = 0.014414055975542446;
							}
						}
					}
				}
			}
		} else {
			if (input[1] > 38.50000000000001) {
				var17 = -0.07287851335872973;
			} else {
				var17 = 0.005263371501687163;
			}
		}
	} else {
		if (input[9] > 7.500000000000001) {
			if (input[21] > 1e-35) {
				if (input[10] > 4.500000000000001) {
					var17 = -0.12459748864088374;
				} else {
					var17 = -0.004626323021331593;
				}
			} else {
				if (input[298] > 1e-35) {
					if (input[4] > 64.50000000000001) {
						var17 = 0.13044981041138526;
					} else {
						if (input[9] > 71.50000000000001) {
							var17 = -0.056068402282406865;
						} else {
							if (input[9] > 12.500000000000002) {
								var17 = 0.038957722962512764;
							} else {
								var17 = -0.04598815982492169;
							}
						}
					}
				} else {
					if (input[8] > 691.5000000000001) {
						if (input[126] > 1e-35) {
							var17 = -0.0852126122372075;
						} else {
							if (input[225] > 1e-35) {
								var17 = 0.10082066771689505;
							} else {
								if (input[1] > 161.50000000000003) {
									var17 = -0.11609832500613824;
								} else {
									if (input[3] > 8.500000000000002) {
										if (input[8] > 1685.5000000000002) {
											var17 = -0.010835400874777133;
										} else {
											var17 = 0.004607419973807752;
										}
									} else {
										var17 = -0.016989075258564062;
									}
								}
							}
						}
					} else {
						var17 = 0.009205417251698097;
					}
				}
			}
		} else {
			if (input[23] > 1e-35) {
				if (input[20] > 1e-35) {
					var17 = 0.10184317139657878;
				} else {
					if (input[0] > 5724.500000000001) {
						var17 = -0.1163666496650542;
					} else {
						if (input[1] > 106.50000000000001) {
							var17 = 0.1303850608190687;
						} else {
							if (input[129] > 1e-35) {
								var17 = 0.10745031509534769;
							} else {
								var17 = 0.006166901738036226;
							}
						}
					}
				}
			} else {
				if (input[31] > 1e-35) {
					var17 = 0.010177092833155127;
				} else {
					if (input[13] > 1e-35) {
						if (input[0] > 213.50000000000003) {
							var17 = 0.005004582564506611;
						} else {
							var17 = -0.10481581731668346;
						}
					} else {
						if (input[19] > 1e-35) {
							var17 = -0.009850706427306281;
						} else {
							var17 = -0.02608226348051303;
						}
					}
				}
			}
		}
	}
	let var18: number;
	if (input[13] > 1e-35) {
		if (input[1] > 64.50000000000001) {
			if (input[2] > 4.500000000000001) {
				var18 = -0.0024117174588695603;
			} else {
				var18 = -0.058339700513831916;
			}
		} else {
			if (input[212] > 1e-35) {
				if (input[0] > 2215.5000000000005) {
					if (input[8] > 847.5000000000001) {
						if (input[10] > 21.500000000000004) {
							if (input[1] > 39.50000000000001) {
								var18 = 0.04575380761203418;
							} else {
								var18 = -0.10025595041353463;
							}
						} else {
							if (input[15] > 1e-35) {
								var18 = 0.17705790384964004;
							} else {
								var18 = 0.0073813837628615014;
							}
						}
					} else {
						var18 = 0.07676373681392407;
					}
				} else {
					var18 = -0.027167992693885996;
				}
			} else {
				if (input[3] > 11.500000000000002) {
					if (input[280] > 1e-35) {
						var18 = 0.07078572910026419;
					} else {
						if (input[4] > 23.500000000000004) {
							var18 = 0.005513918674164821;
						} else {
							var18 = 0.0206586476926392;
						}
					}
				} else {
					if (input[0] > 5269.500000000001) {
						var18 = 0.07706773525822633;
					} else {
						var18 = -0.010233826953776122;
					}
				}
			}
		}
	} else {
		if (input[148] > 1e-35) {
			if (input[8] > 1622.5000000000002) {
				var18 = -0.03204783603215824;
			} else {
				var18 = 0.027405418223981973;
			}
		} else {
			if (input[4] > 14.500000000000002) {
				if (input[131] > 1e-35) {
					if (input[9] > 1.5000000000000002) {
						if (input[0] > 5026.500000000001) {
							var18 = -0.0930246911392012;
						} else {
							var18 = 0.011173087289703683;
						}
					} else {
						if (input[3] > 24.500000000000004) {
							var18 = 0.03281421918878597;
						} else {
							var18 = 0.12449335091369843;
						}
					}
				} else {
					if (input[204] > 1e-35) {
						var18 = 0.06634531187326123;
					} else {
						var18 = -0.011522999669353388;
					}
				}
			} else {
				if (input[92] > 1e-35) {
					if (input[10] > 42.50000000000001) {
						var18 = -0.041196758517013515;
					} else {
						if (input[4] > 7.500000000000001) {
							var18 = -0.00002942718111029724;
						} else {
							if (input[4] > 6.500000000000001) {
								var18 = 0.11953909558532852;
							} else {
								var18 = 0.03188615019450534;
							}
						}
					}
				} else {
					if (input[122] > 1e-35) {
						var18 = -0.0616037324662157;
					} else {
						if (input[101] > 1e-35) {
							var18 = 0.027230889593349412;
						} else {
							if (input[8] > 4968.500000000001) {
								var18 = -0.1113986516540856;
							} else {
								if (input[3] > 2.5000000000000004) {
									var18 = -0.002045140426885727;
								} else {
									if (input[129] > 1e-35) {
										var18 = 0.12641163374304432;
									} else {
										var18 = 0.014909826232873194;
									}
								}
							}
						}
					}
				}
			}
		}
	}
	let var19: number;
	if (input[308] > 1e-35) {
		if (input[0] > 7277.500000000001) {
			var19 = -0.09337446795435;
		} else {
			if (input[5] > 423.00000000000006) {
				if (input[133] > 1e-35) {
					var19 = -0.040884836258675006;
				} else {
					if (input[210] > 1e-35) {
						var19 = -0.0003719413278428804;
					} else {
						if (input[13] > 1e-35) {
							var19 = 0.030287610160818174;
						} else {
							var19 = 0.011174130013595384;
						}
					}
				}
			} else {
				if (input[1] > 38.50000000000001) {
					var19 = -0.0662442170185784;
				} else {
					var19 = 0.004332185707008564;
				}
			}
		}
	} else {
		if (input[9] > 7.500000000000001) {
			if (input[145] > 1e-35) {
				if (input[285] > 1e-35) {
					var19 = -0.08092286307197555;
				} else {
					var19 = 0.029866363328584986;
				}
			} else {
				if (input[21] > 1e-35) {
					if (input[10] > 4.500000000000001) {
						var19 = -0.1155211149523894;
					} else {
						var19 = -0.0032903546638958538;
					}
				} else {
					if (input[149] > 1e-35) {
						var19 = -0.03632198993199768;
					} else {
						if (input[3] > 9.500000000000002) {
							if (input[8] > 999.5000000000001) {
								var19 = -0.003507023626534306;
							} else {
								if (input[128] > 1e-35) {
									if (input[4] > 13.500000000000002) {
										if (input[0] > 3459.5000000000005) {
											var19 = -0.025416927789760076;
										} else {
											var19 = 0.02777568919793122;
										}
									} else {
										var19 = -0.10310351509769732;
									}
								} else {
									var19 = 0.013549608903688785;
								}
							}
						} else {
							if (input[186] > 1e-35) {
								var19 = 0.08513865847420551;
							} else {
								var19 = -0.009306721292510369;
							}
						}
					}
				}
			}
		} else {
			if (input[31] > 1e-35) {
				var19 = 0.009780833952582307;
			} else {
				if (input[23] > 1e-35) {
					var19 = 0.011143773934157629;
				} else {
					if (input[210] > 1e-35) {
						var19 = 0.025354797285173356;
					} else {
						if (input[17] > 1e-35) {
							if (input[10] > 3.5000000000000004) {
								var19 = -0.04846287537743046;
							} else {
								var19 = -0.014647271080376757;
							}
						} else {
							if (input[2] > 5.500000000000001) {
								if (input[7] > 57.50000000000001) {
									var19 = -0.034224938681445764;
								} else {
									if (input[8] > 1641.5000000000002) {
										var19 = -0.027298372075800673;
									} else {
										if (input[191] > 1e-35) {
											if (input[10] > 18.500000000000004) {
												var19 = -0.027950103994861836;
											} else {
												var19 = 0.14575930827829034;
											}
										} else {
											var19 = -0.007124740389354946;
										}
									}
								}
							} else {
								if (input[10] > 22.500000000000004) {
									var19 = 0.013173304107866726;
								} else {
									var19 = -0.11119620042551365;
								}
							}
						}
					}
				}
			}
		}
	}
	let var20: number;
	if (input[131] > 1e-35) {
		var20 = 0.01892225243240137;
	} else {
		if (input[308] > 1e-35) {
			if (input[5] > 691.5000000000001) {
				if (input[133] > 1e-35) {
					var20 = -0.037118314390013646;
				} else {
					if (input[1] > 51.50000000000001) {
						if (input[5] > 3749.5000000000005) {
							if (input[8] > 58.50000000000001) {
								var20 = -0.022305242912035072;
							} else {
								var20 = 0.024792895826340516;
							}
						} else {
							var20 = 0.013666137278072166;
						}
					} else {
						if (input[88] > 1e-35) {
							if (input[10] > 27.500000000000004) {
								var20 = 0.2080083584805785;
							} else {
								var20 = 0.04247197078083379;
							}
						} else {
							if (input[10] > 40.50000000000001) {
								if (input[18] > 1e-35) {
									if (input[1] > 27.500000000000004) {
										var20 = 0.060783227455868206;
									} else {
										var20 = -0.056904865557409035;
									}
								} else {
									var20 = -0.03278952553107572;
								}
							} else {
								if (input[192] > 1e-35) {
									var20 = 0.13117402617043625;
								} else {
									var20 = 0.01647119888257836;
								}
							}
						}
					}
				}
			} else {
				var20 = -0.01825870445636398;
			}
		} else {
			if (input[9] > 6.500000000000001) {
				if (input[298] > 1e-35) {
					var20 = 0.026536210945939682;
				} else {
					if (input[8] > 691.5000000000001) {
						if (input[126] > 1e-35) {
							var20 = -0.07927319604548912;
						} else {
							if (input[10] > 3.5000000000000004) {
								if (input[21] > 1e-35) {
									var20 = -0.11083976837572328;
								} else {
									if (input[146] > 1e-35) {
										var20 = -0.03359294484446772;
									} else {
										var20 = -0.0042815953591236475;
									}
								}
							} else {
								if (input[190] > 1e-35) {
									var20 = -0.09264239592903775;
								} else {
									if (input[10] > 1e-35) {
										var20 = 0.022282638485105657;
									} else {
										var20 = -0.0205994057928458;
									}
								}
							}
						}
					} else {
						if (input[5] > 4918.500000000001) {
							var20 = 0.03430715695199153;
						} else {
							if (input[243] > 1e-35) {
								if (input[2] > 57.50000000000001) {
									var20 = 0.08935072241972036;
								} else {
									var20 = -0.03781647876237494;
								}
							} else {
								var20 = 0.0062655753179671515;
							}
						}
					}
				}
			} else {
				if (input[31] > 1e-35) {
					var20 = 0.008603500300349887;
				} else {
					if (input[230] > 1e-35) {
						var20 = 0.03350056932774173;
					} else {
						if (input[23] > 1e-35) {
							if (input[241] > 1e-35) {
								var20 = 0.10277555508503314;
							} else {
								var20 = 0.0017901817172993888;
							}
						} else {
							if (input[2] > 98.50000000000001) {
								var20 = -0.05920081229672715;
							} else {
								var20 = -0.015722173275739208;
							}
						}
					}
				}
			}
		}
	}
	let var21: number;
	if (input[13] > 1e-35) {
		if (input[118] > 1e-35) {
			var21 = 0.07957905150112207;
		} else {
			if (input[1] > 125.50000000000001) {
				var21 = -0.0662620579858685;
			} else {
				if (input[145] > 1e-35) {
					var21 = 0.029682040828779843;
				} else {
					if (input[19] > 1e-35) {
						if (input[6] > 15.500000000000002) {
							var21 = -0.0009597832580977798;
						} else {
							var21 = -0.081474760755753;
						}
					} else {
						if (input[212] > 1e-35) {
							var21 = 0.03637001492325179;
						} else {
							var21 = 0.006912305498963309;
						}
					}
				}
			}
		}
	} else {
		if (input[32] > 1e-35) {
			var21 = -0.03919900630910754;
		} else {
			if (input[134] > 1e-35) {
				var21 = -0.036225295529777886;
			} else {
				if (input[4] > 4.500000000000001) {
					if (input[5] > 384.50000000000006) {
						if (input[204] > 1e-35) {
							var21 = 0.06671440854602108;
						} else {
							if (input[136] > 1e-35) {
								var21 = -0.07577364230133474;
							} else {
								if (input[148] > 1e-35) {
									if (input[4] > 7.500000000000001) {
										var21 = 0.026430947016830915;
									} else {
										var21 = -0.04075501264495112;
									}
								} else {
									if (input[9] > 93.50000000000001) {
										var21 = -0.04353169430417609;
									} else {
										if (input[50] > 1e-35) {
											var21 = -0.1411224537622882;
										} else {
											if (input[17] > 1e-35) {
												if (input[49] > 1e-35) {
													var21 = 0.068392679163672;
												} else {
													if (input[10] > 1.5000000000000002) {
														var21 = -0.0209659792007492;
													} else {
														var21 = -0.0004393235559249831;
													}
												}
											} else {
												if (input[133] > 1e-35) {
													if (input[9] > 64.50000000000001) {
														var21 = 0.07254524592323175;
													} else {
														var21 = -0.0319087835282534;
													}
												} else {
													var21 = 0.00037444813327793425;
												}
											}
										}
									}
								}
							}
						}
					} else {
						var21 = -0.025138768151370408;
					}
				} else {
					if (input[243] > 1e-35) {
						var21 = -0.050010891710502096;
					} else {
						if (input[94] > 1e-35) {
							var21 = -0.0817513550778599;
						} else {
							if (input[122] > 1e-35) {
								var21 = -0.061038875809822285;
							} else {
								if (input[19] > 1e-35) {
									if (input[8] > 1085.5000000000002) {
										var21 = -0.008408408775061623;
									} else {
										if (input[2] > 5.500000000000001) {
											if (input[218] > 1e-35) {
												var21 = 0.1454877641381946;
											} else {
												var21 = 0.053787998331240316;
											}
										} else {
											if (input[9] > 33.50000000000001) {
												var21 = 0.08602629796680285;
											} else {
												var21 = -0.03895127455803038;
											}
										}
									}
								} else {
									var21 = 0.008830878042315722;
								}
							}
						}
					}
				}
			}
		}
	}
	let var22: number;
	if (input[131] > 1e-35) {
		var22 = 0.01687979707990516;
	} else {
		if (input[8] > 2915.5000000000005) {
			if (input[297] > 1e-35) {
				var22 = 0.07473600489975568;
			} else {
				if (input[0] > 93.50000000000001) {
					var22 = -0.021596848506011502;
				} else {
					var22 = -0.13840802327735696;
				}
			}
		} else {
			if (input[230] > 1e-35) {
				if (input[4] > 6.500000000000001) {
					if (input[0] > 4977.500000000001) {
						var22 = 0.10264284346448256;
					} else {
						var22 = 0.031042487183181262;
					}
				} else {
					var22 = -0.016653982936827776;
				}
			} else {
				if (input[4] > 60.50000000000001) {
					if (input[10] > 75.50000000000001) {
						var22 = 0.04226403420647408;
					} else {
						if (input[10] > 1e-35) {
							if (input[0] > 4733.500000000001) {
								var22 = 0.006271403149804702;
							} else {
								var22 = -0.030013637555715046;
							}
						} else {
							if (input[0] > 4449.500000000001) {
								var22 = -0.06556876058654929;
							} else {
								var22 = 0.06437994816903034;
							}
						}
					}
				} else {
					if (input[32] > 1e-35) {
						var22 = -0.043814577251655815;
					} else {
						if (input[308] > 1e-35) {
							if (input[0] > 7277.500000000001) {
								var22 = -0.09349726304052086;
							} else {
								if (input[210] > 1e-35) {
									var22 = -0.0035960132209098003;
								} else {
									if (input[5] > 691.5000000000001) {
										if (input[133] > 1e-35) {
											var22 = -0.029188394315052574;
										} else {
											var22 = 0.017219308333820193;
										}
									} else {
										var22 = -0.017378928852189585;
									}
								}
							}
						} else {
							if (input[9] > 6.500000000000001) {
								if (input[0] > 2653.5000000000005) {
									if (input[149] > 1e-35) {
										var22 = -0.04428555753857688;
									} else {
										var22 = 0.0001456106867817353;
									}
								} else {
									if (input[5] > 213.50000000000003) {
										var22 = 0.01740292726636365;
									} else {
										var22 = -0.011361718115556464;
									}
								}
							} else {
								if (input[7] > 4.500000000000001) {
									if (input[0] > 316.50000000000006) {
										if (input[19] > 1e-35) {
											if (input[10] > 54.50000000000001) {
												var22 = 0.03410288911259329;
											} else {
												if (input[121] > 1e-35) {
													var22 = -0.06056527462120627;
												} else {
													if (input[8] > 2592.5000000000005) {
														var22 = 0.12166808844363577;
													} else {
														if (input[191] > 1e-35) {
															var22 = 0.11669879218998758;
														} else {
															var22 = -0.001664858391716235;
														}
													}
												}
											}
										} else {
											var22 = -0.01262927450503166;
										}
									} else {
										var22 = -0.04506589951879664;
									}
								} else {
									if (input[227] > 1e-35) {
										var22 = -0.08548904959752329;
									} else {
										var22 = 0.02156080776537726;
									}
								}
							}
						}
					}
				}
			}
		}
	}
	let var23: number;
	if (input[306] > 1e-35) {
		if (input[149] > 1e-35) {
			var23 = -0.1389218965136736;
		} else {
			var23 = -0.032218642644416894;
		}
	} else {
		if (input[13] > 1e-35) {
			var23 = 0.006465035217331847;
		} else {
			if (input[50] > 1e-35) {
				var23 = -0.1381687930130022;
			} else {
				if (input[179] > 1e-35) {
					var23 = -0.13112784985951215;
				} else {
					if (input[148] > 1e-35) {
						if (input[8] > 1726.5000000000002) {
							var23 = -0.03262719498763048;
						} else {
							var23 = 0.023342916702125613;
						}
					} else {
						if (input[191] > 1e-35) {
							var23 = 0.030005484947580197;
						} else {
							if (input[4] > 4.500000000000001) {
								if (input[204] > 1e-35) {
									var23 = 0.047767773119269434;
								} else {
									if (input[136] > 1e-35) {
										if (input[0] > 1937.5000000000002) {
											var23 = -0.09989343595668776;
										} else {
											var23 = 0.06533942033334243;
										}
									} else {
										if (input[15] > 1e-35) {
											if (input[9] > 86.50000000000001) {
												var23 = -0.10577989354150097;
											} else {
												if (input[8] > 668.5000000000001) {
													if (input[126] > 1e-35) {
														var23 = -0.09165257825246746;
													} else {
														if (input[9] > 32.50000000000001) {
															var23 = 0.02484870392366004;
														} else {
															var23 = -0.008499493096971395;
														}
													}
												} else {
													if (input[8] > 24.500000000000004) {
														var23 = 0.02459679192828244;
													} else {
														var23 = -0.010527978013140512;
													}
												}
											}
										} else {
											if (input[25] > 1e-35) {
												if (input[217] > 1e-35) {
													var23 = 0.0015644546318714849;
												} else {
													var23 = -0.06579524865022705;
												}
											} else {
												var23 = -0.0060233890975120614;
											}
										}
									}
								}
							} else {
								if (input[122] > 1e-35) {
									if (input[1] > 36.50000000000001) {
										var23 = 0.03331853632960164;
									} else {
										var23 = -0.09482264761126993;
									}
								} else {
									if (input[19] > 1e-35) {
										if (input[8] > 1430.5000000000002) {
											var23 = -0.019091477207111116;
										} else {
											var23 = 0.037878468575478504;
										}
									} else {
										if (input[94] > 1e-35) {
											var23 = -0.08013082284576584;
										} else {
											if (input[4] > 2.5000000000000004) {
												if (input[186] > 1e-35) {
													var23 = 0.16919658785098224;
												} else {
													if (input[243] > 1e-35) {
														var23 = -0.06580584936754524;
													} else {
														var23 = 0.01567555159935563;
													}
												}
											} else {
												if (input[129] > 1e-35) {
													var23 = 0.06721746994993226;
												} else {
													if (input[10] > 32.50000000000001) {
														var23 = -0.046394462507797975;
													} else {
														var23 = -0.006436180519584767;
													}
												}
											}
										}
									}
								}
							}
						}
					}
				}
			}
		}
	}
	let var24: number;
	if (input[131] > 1e-35) {
		var24 = 0.015039096856208693;
	} else {
		if (input[8] > 779.5000000000001) {
			if (input[145] > 1e-35) {
				var24 = 0.019122095523977856;
			} else {
				if (input[298] > 1e-35) {
					var24 = 0.023828936462317443;
				} else {
					if (input[1] > 23.500000000000004) {
						if (input[5] > 384.50000000000006) {
							if (input[7] > 59.50000000000001) {
								var24 = -0.026094309429557913;
							} else {
								if (input[204] > 1e-35) {
									var24 = 0.09163404305658318;
								} else {
									if (input[1] > 27.500000000000004) {
										if (input[149] > 1e-35) {
											if (input[6] > 34.50000000000001) {
												var24 = 0.012643810980689466;
											} else {
												var24 = -0.07884161741497837;
											}
										} else {
											var24 = -0.0025267379810891104;
										}
									} else {
										if (input[2] > 43.50000000000001) {
											if (input[0] > 2860.5000000000005) {
												var24 = 0.04493082949897325;
											} else {
												var24 = 0.18046359750455776;
											}
										} else {
											if (input[7] > 18.500000000000004) {
												var24 = -0.018667348656891496;
											} else {
												var24 = 0.02584325784698236;
											}
										}
									}
								}
							}
						} else {
							var24 = -0.045696524897545915;
						}
					} else {
						if (input[0] > 3321.5000000000005) {
							if (input[201] > 1e-35) {
								var24 = 0.04749240016989375;
							} else {
								var24 = -0.0333334578246718;
							}
						} else {
							if (input[5] > 3276.5000000000005) {
								var24 = 0.11330554740098908;
							} else {
								if (input[7] > 94.50000000000001) {
									var24 = 0.1296600395033268;
								} else {
									var24 = -0.003576436308940934;
								}
							}
						}
					}
				}
			}
		} else {
			if (input[15] > 1e-35) {
				if (input[183] > 1e-35) {
					var24 = -0.13787130789142835;
				} else {
					if (input[0] > 1847.5000000000002) {
						var24 = 0.017915229729920556;
					} else {
						if (input[10] > 23.500000000000004) {
							if (input[10] > 31.500000000000004) {
								if (input[6] > 7.500000000000001) {
									var24 = 0.028856848462727104;
								} else {
									var24 = -0.11197632885851168;
								}
							} else {
								var24 = 0.08169801342016791;
							}
						} else {
							if (input[1] > 22.500000000000004) {
								var24 = -0.021052888644970163;
							} else {
								var24 = 0.019048604298876753;
							}
						}
					}
				}
			} else {
				if (input[7] > 4.500000000000001) {
					var24 = -0.002603328695276418;
				} else {
					if (input[7] > 1.5000000000000002) {
						if (input[2] > 5.500000000000001) {
							var24 = 0.03432638833359197;
						} else {
							var24 = -0.0036767863082454973;
						}
					} else {
						if (input[1] > 48.50000000000001) {
							var24 = 0.03087375270128195;
						} else {
							if (input[2] > 3.5000000000000004) {
								var24 = -0.04219917149740248;
							} else {
								var24 = 0.018818493993207935;
							}
						}
					}
				}
			}
		}
	}
	let var25: number;
	if (input[306] > 1e-35) {
		var25 = -0.04076858123502297;
	} else {
		if (input[13] > 1e-35) {
			if (input[1] > 67.50000000000001) {
				if (input[9] > 14.500000000000002) {
					if (input[9] > 53.50000000000001) {
						if (input[8] > 1971.5000000000002) {
							var25 = -0.09091897542577475;
						} else {
							var25 = 0.04042943082645558;
						}
					} else {
						if (input[218] > 1e-35) {
							var25 = 0.056254985867151;
						} else {
							var25 = -0.053848117950183044;
						}
					}
				} else {
					var25 = 0.003881630017086845;
				}
			} else {
				if (input[5] > 5152.500000000001) {
					if (input[8] > 857.5000000000001) {
						if (input[6] > 28.500000000000004) {
							var25 = 0.021581808008986944;
						} else {
							var25 = -0.05639286496176611;
						}
					} else {
						var25 = 0.052838875036198954;
					}
				} else {
					if (input[5] > 50.50000000000001) {
						if (input[5] > 4082.5000000000005) {
							if (input[17] > 1e-35) {
								var25 = 0.023061479860228728;
							} else {
								if (input[145] > 1e-35) {
									if (input[9] > 10.500000000000002) {
										var25 = 0.023885302967553288;
									} else {
										var25 = 0.1617794086125622;
									}
								} else {
									if (input[212] > 1e-35) {
										var25 = 0.04504545345658806;
									} else {
										if (input[3] > 17.500000000000004) {
											if (input[4] > 45.50000000000001) {
												var25 = -0.03948072448245435;
											} else {
												if (input[1] > 47.50000000000001) {
													if (input[9] > 18.500000000000004) {
														var25 = 0.01894935813286188;
													} else {
														var25 = -0.06449356357429188;
													}
												} else {
													var25 = 0.012297239104320094;
												}
											}
										} else {
											if (input[1] > 26.500000000000004) {
												if (input[8] > 33.50000000000001) {
													var25 = -0.034718828212885515;
												} else {
													var25 = 0.0898976288814321;
												}
											} else {
												if (input[1] > 17.500000000000004) {
													var25 = -0.15440137451988326;
												} else {
													var25 = -0.03864183216821465;
												}
											}
										}
									}
								}
							}
						} else {
							var25 = 0.009988507307006308;
						}
					} else {
						var25 = -0.08540311947043305;
					}
				}
			}
		} else {
			if (input[50] > 1e-35) {
				var25 = -0.13323659732101975;
			} else {
				if (input[134] > 1e-35) {
					var25 = -0.031820386486894385;
				} else {
					if (input[32] > 1e-35) {
						if (input[8] > 2302.5000000000005) {
							var25 = 0.08082476177379844;
						} else {
							var25 = -0.041665761903645876;
						}
					} else {
						if (input[179] > 1e-35) {
							var25 = -0.12405023987936657;
						} else {
							if (input[39] > 1e-35) {
								var25 = -0.06247416524997478;
							} else {
								if (input[138] > 1e-35) {
									var25 = -0.10724031753676487;
								} else {
									var25 = -0.0005423122305122404;
								}
							}
						}
					}
				}
			}
		}
	}
	let var26: number;
	if (input[308] > 1e-35) {
		var26 = 0.006160742906729798;
	} else {
		if (input[190] > 1e-35) {
			if (input[0] > 2461.5000000000005) {
				if (input[10] > 22.500000000000004) {
					var26 = 0.023223358334607133;
				} else {
					var26 = -0.04383410185346742;
				}
			} else {
				var26 = -0.08542395045055405;
			}
		} else {
			if (input[297] > 1e-35) {
				if (input[8] > 51.50000000000001) {
					if (input[1] > 13.500000000000002) {
						var26 = 0.023406489302867494;
					} else {
						var26 = -0.085521220804058;
					}
				} else {
					var26 = -0.02921899554854833;
				}
			} else {
				if (input[298] > 1e-35) {
					if (input[9] > 12.500000000000002) {
						var26 = 0.028120059780969632;
					} else {
						var26 = -0.04211009474298743;
					}
				} else {
					if (input[294] > 1e-35) {
						var26 = -0.05040415676618239;
					} else {
						if (input[86] > 1e-35) {
							if (input[1] > 36.50000000000001) {
								var26 = -0.0993035220737934;
							} else {
								var26 = -0.0005384930611060366;
							}
						} else {
							if (input[230] > 1e-35) {
								if (input[4] > 6.500000000000001) {
									var26 = 0.029770210551187937;
								} else {
									var26 = -0.016272917551655715;
								}
							} else {
								if (input[4] > 60.50000000000001) {
									if (input[280] > 1e-35) {
										var26 = 0.06421359317599738;
									} else {
										var26 = -0.01963732469244167;
									}
								} else {
									if (input[218] > 1e-35) {
										if (input[3] > 3.5000000000000004) {
											var26 = 0.024368404612215164;
										} else {
											var26 = -0.04045232374803373;
										}
									} else {
										if (input[131] > 1e-35) {
											var26 = 0.017372701982485795;
										} else {
											if (input[120] > 1e-35) {
												var26 = 0.08812710275150198;
											} else {
												if (input[18] > 1e-35) {
													if (input[90] > 1e-35) {
														var26 = 0.18451364351180236;
													} else {
														if (input[7] > 33.50000000000001) {
															var26 = -0.03850813130183531;
														} else {
															if (input[195] > 1e-35) {
																var26 = 0.06966114053446336;
															} else {
																if (input[3] > 16.500000000000004) {
																	var26 = -0.0012869181693341211;
																} else {
																	if (input[0] > 4242.500000000001) {
																		var26 = -0.054625548611291035;
																	} else {
																		var26 = -0.014431095117473881;
																	}
																}
															}
														}
													}
												} else {
													if (input[5] > 4558.500000000001) {
														if (input[8] > 1.5000000000000002) {
															var26 = 0.006302103427145562;
														} else {
															var26 = 0.13967622319898698;
														}
													} else {
														if (input[121] > 1e-35) {
															var26 = -0.038798585213145644;
														} else {
															if (input[5] > 4544.500000000001) {
																var26 = -0.08050498033009466;
															} else {
																var26 = -0.002986974112681435;
															}
														}
													}
												}
											}
										}
									}
								}
							}
						}
					}
				}
			}
		}
	}
	let var27: number;
	if (input[0] > 384.50000000000006) {
		if (input[2] > 101.50000000000001) {
			if (input[1] > 16.500000000000004) {
				var27 = -0.03461119351456781;
			} else {
				var27 = 0.05659026566680352;
			}
		} else {
			if (input[306] > 1e-35) {
				if (input[2] > 14.500000000000002) {
					if (input[149] > 1e-35) {
						var27 = -0.12404435523286539;
					} else {
						var27 = -0.0034376913880382956;
					}
				} else {
					var27 = -0.09821622245095822;
				}
			} else {
				if (input[131] > 1e-35) {
					if (input[9] > 1.5000000000000002) {
						var27 = 0.0037507103585310234;
					} else {
						var27 = 0.03610387965829944;
					}
				} else {
					if (input[8] > 999.5000000000001) {
						if (input[9] > 137.50000000000003) {
							var27 = -0.11985021663179699;
						} else {
							if (input[0] > 1847.5000000000002) {
								if (input[126] > 1e-35) {
									var27 = -0.04832024079663151;
								} else {
									if (input[37] > 1e-35) {
										var27 = -0.037103393468366934;
									} else {
										var27 = -0.004248086592531705;
									}
								}
							} else {
								if (input[8] > 3084.0000000000005) {
									if (input[9] > 43.50000000000001) {
										var27 = 0.032539071163832034;
									} else {
										if (input[5] > 1643.5000000000002) {
											var27 = 0.036408625378035665;
										} else {
											if (input[0] > 1500.5000000000002) {
												var27 = -0.1346358322854993;
											} else {
												var27 = -0.027586559522081014;
											}
										}
									}
								} else {
									if (input[3] > 1e-35) {
										if (input[190] > 1e-35) {
											var27 = -0.1133991164577881;
										} else {
											if (input[9] > 52.50000000000001) {
												var27 = -0.024478640359723122;
											} else {
												var27 = 0.03673777861098756;
											}
										}
									} else {
										var27 = -0.1037451237591819;
									}
								}
							}
						}
					} else {
						if (input[230] > 1e-35) {
							if (input[9] > 48.50000000000001) {
								if (input[10] > 20.500000000000004) {
									var27 = 0.002583438691776944;
								} else {
									var27 = 0.10773520810108106;
								}
							} else {
								if (input[9] > 12.500000000000002) {
									if (input[1] > 16.500000000000004) {
										var27 = -0.02141222346712401;
									} else {
										var27 = 0.06392462314316179;
									}
								} else {
									if (input[4] > 12.500000000000002) {
										var27 = 0.08700122294434816;
									} else {
										if (input[8] > 267.50000000000006) {
											var27 = 0.056923170082743224;
										} else {
											var27 = -0.07716309825583327;
										}
									}
								}
							}
						} else {
							if (input[32] > 1e-35) {
								var27 = -0.03961343943752142;
							} else {
								var27 = 0.002674914122888783;
							}
						}
					}
				}
			}
		}
	} else {
		if (input[1] > 42.50000000000001) {
			var27 = -0.05217539654421676;
		} else {
			if (input[145] > 1e-35) {
				var27 = 0.09553630282946368;
			} else {
				var27 = -0.009424791262477729;
			}
		}
	}
	let var28: number;
	if (input[183] > 1e-35) {
		var28 = -0.05753337139158443;
	} else {
		if (input[308] > 1e-35) {
			var28 = 0.00562436671450989;
		} else {
			if (input[9] > 7.500000000000001) {
				if (input[21] > 1e-35) {
					if (input[10] > 8.500000000000002) {
						var28 = -0.10477869875380448;
					} else {
						var28 = -0.0070301869937306055;
					}
				} else {
					if (input[3] > 9.500000000000002) {
						if (input[8] > 1765.5000000000002) {
							if (input[0] > 4571.500000000001) {
								var28 = -0.12526505173232894;
							} else {
								if (input[10] > 1e-35) {
									if (input[9] > 71.50000000000001) {
										var28 = -0.04442302951713574;
									} else {
										var28 = 0.00012409888451734224;
									}
								} else {
									var28 = -0.092199119633697;
								}
							}
						} else {
							if (input[225] > 1e-35) {
								var28 = 0.13773072450201831;
							} else {
								if (input[0] > 2882.5000000000005) {
									var28 = 0.0028540012229920533;
								} else {
									if (input[298] > 1e-35) {
										var28 = 0.07134486044361629;
									} else {
										var28 = 0.014297412329837425;
									}
								}
							}
						}
					} else {
						if (input[145] > 1e-35) {
							var28 = 0.05608385321902638;
						} else {
							if (input[92] > 1e-35) {
								var28 = 0.038298413603926135;
							} else {
								if (input[107] > 1e-35) {
									if (input[2] > 6.500000000000001) {
										var28 = -0.0039957800609801315;
									} else {
										var28 = 0.0776927564241081;
									}
								} else {
									if (input[203] > 1e-35) {
										var28 = -0.05502900859432093;
									} else {
										if (input[105] > 1e-35) {
											var28 = 0.06062892720841595;
										} else {
											var28 = -0.009574839629252128;
										}
									}
								}
							}
						}
					}
				}
			} else {
				if (input[31] > 1e-35) {
					var28 = 0.009488858841144216;
				} else {
					if (input[23] > 1e-35) {
						if (input[20] > 1e-35) {
							var28 = 0.08818126313644752;
						} else {
							if (input[8] > 161.50000000000003) {
								var28 = 0.014353968957885408;
							} else {
								var28 = -0.022240738532827903;
							}
						}
					} else {
						if (input[210] > 1e-35) {
							var28 = 0.024648862719806694;
						} else {
							if (input[2] > 5.500000000000001) {
								if (input[4] > 4.500000000000001) {
									if (input[17] > 1e-35) {
										if (input[10] > 16.500000000000004) {
											var28 = -0.043902062079383485;
										} else {
											var28 = -0.014741559220396223;
										}
									} else {
										var28 = -0.00934935734853194;
									}
								} else {
									if (input[6] > 32.50000000000001) {
										var28 = 0.1514593126307404;
									} else {
										var28 = 0.010771222510801532;
									}
								}
							} else {
								if (input[10] > 22.500000000000004) {
									var28 = 0.01412495209334078;
								} else {
									var28 = -0.08576940379502533;
								}
							}
						}
					}
				}
			}
		}
	}
	let var29: number;
	if (input[0] > 384.50000000000006) {
		if (input[84] > 1e-35) {
			var29 = -0.06647690967306838;
		} else {
			if (input[2] > 101.50000000000001) {
				var29 = -0.024451334501552457;
			} else {
				if (input[306] > 1e-35) {
					var29 = -0.034517188927733505;
				} else {
					if (input[131] > 1e-35) {
						if (input[9] > 1.5000000000000002) {
							var29 = 0.0031858381443673127;
						} else {
							var29 = 0.032574927024450646;
						}
					} else {
						if (input[204] > 1e-35) {
							if (input[1] > 62.50000000000001) {
								var29 = -0.08601340441214533;
							} else {
								if (input[1] > 29.500000000000004) {
									var29 = 0.10487598629539963;
								} else {
									if (input[8] > 597.5000000000001) {
										var29 = -0.0786529133673238;
									} else {
										var29 = 0.08689436600511559;
									}
								}
							}
						} else {
							if (input[8] > 779.5000000000001) {
								if (input[10] > 2.5000000000000004) {
									if (input[9] > 100.50000000000001) {
										var29 = -0.04883600353740688;
									} else {
										if (input[126] > 1e-35) {
											var29 = -0.03794042763348827;
										} else {
											var29 = -0.003358871967539988;
										}
									}
								} else {
									if (input[210] > 1e-35) {
										var29 = 0.054991356498447566;
									} else {
										if (input[6] > 19.500000000000004) {
											var29 = -0.007418396981635549;
										} else {
											var29 = 0.018032606049498613;
										}
									}
								}
							} else {
								if (input[18] > 1e-35) {
									if (input[7] > 35.50000000000001) {
										if (input[2] > 44.50000000000001) {
											var29 = -0.02143003429501711;
										} else {
											var29 = -0.09016000554055564;
										}
									} else {
										if (input[1] > 19.500000000000004) {
											if (input[1] > 42.50000000000001) {
												if (input[8] > 17.500000000000004) {
													var29 = -0.006636355416244082;
												} else {
													var29 = -0.06483095743431454;
												}
											} else {
												if (input[4] > 21.500000000000004) {
													var29 = -0.028975965946833545;
												} else {
													var29 = 0.022012264796522657;
												}
											}
										} else {
											var29 = -0.06653648243193663;
										}
									}
								} else {
									if (input[5] > 4593.500000000001) {
										var29 = 0.01753551428088607;
									} else {
										if (input[217] > 1e-35) {
											var29 = -0.028864824937700297;
										} else {
											if (input[94] > 1e-35) {
												var29 = -0.04885192273020658;
											} else {
												if (input[279] > 1e-35) {
													var29 = 0.08105715462329498;
												} else {
													if (input[121] > 1e-35) {
														var29 = -0.04576676034750651;
													} else {
														var29 = 0.004795141324949362;
													}
												}
											}
										}
									}
								}
							}
						}
					}
				}
			}
		}
	} else {
		if (input[1] > 42.50000000000001) {
			var29 = -0.047446619702809195;
		} else {
			if (input[145] > 1e-35) {
				var29 = 0.08400495571952321;
			} else {
				var29 = -0.00854528836489364;
			}
		}
	}
	let var30: number;
	if (input[294] > 1e-35) {
		var30 = -0.042529778074638265;
	} else {
		if (input[266] > 1e-35) {
			var30 = -0.1180276669679798;
		} else {
			if (input[134] > 1e-35) {
				var30 = -0.026818144353279623;
			} else {
				if (input[183] > 1e-35) {
					var30 = -0.05120747503479363;
				} else {
					if (input[227] > 1e-35) {
						if (input[8] > 1641.5000000000002) {
							var30 = -0.07265906898294434;
						} else {
							if (input[4] > 12.500000000000002) {
								if (input[17] > 1e-35) {
									var30 = -0.027516137530797014;
								} else {
									if (input[0] > 4331.500000000001) {
										if (input[1] > 64.50000000000001) {
											var30 = -0.03049646619610203;
										} else {
											if (input[1] > 50.50000000000001) {
												var30 = 0.20634590755061122;
											} else {
												var30 = 0.06956378103625731;
											}
										}
									} else {
										if (input[0] > 3770.5000000000005) {
											var30 = -0.07946414366134913;
										} else {
											if (input[19] > 1e-35) {
												var30 = 0.17083312065604694;
											} else {
												if (input[2] > 21.500000000000004) {
													var30 = -0.02327981978127724;
												} else {
													var30 = 0.129717297518715;
												}
											}
										}
									}
								}
							} else {
								if (input[145] > 1e-35) {
									var30 = 0.006891245076133524;
								} else {
									var30 = -0.0789123467863741;
								}
							}
						}
					} else {
						if (input[3] > 99.50000000000001) {
							var30 = -0.02022281202803071;
						} else {
							if (input[302] > 1e-35) {
								if (input[10] > 47.50000000000001) {
									var30 = 0.06447639919732716;
								} else {
									var30 = -0.05457561977645972;
								}
							} else {
								if (input[306] > 1e-35) {
									var30 = -0.029995903305383882;
								} else {
									if (input[191] > 1e-35) {
										var30 = 0.030596508110850414;
									} else {
										if (input[242] > 1e-35) {
											var30 = -0.024085578702020216;
										} else {
											if (input[8] > 3198.5000000000005) {
												if (input[297] > 1e-35) {
													var30 = 0.09518584795377832;
												} else {
													var30 = -0.018197744600833596;
												}
											} else {
												if (input[13] > 1e-35) {
													var30 = 0.006751790086127549;
												} else {
													if (input[148] > 1e-35) {
														var30 = 0.01904174573618417;
													} else {
														if (input[99] > 1e-35) {
															var30 = 0.025287735102561926;
														} else {
															if (input[4] > 14.500000000000002) {
																var30 = -0.004364337681643273;
															} else {
																if (input[1] > 15.500000000000002) {
																	if (input[35] > 1e-35) {
																		var30 = -0.09467943982430241;
																	} else {
																		if (input[243] > 1e-35) {
																			var30 = -0.02521824751996268;
																		} else {
																			var30 = 0.005437570718352172;
																		}
																	}
																} else {
																	var30 = -0.022476214821960674;
																}
															}
														}
													}
												}
											}
										}
									}
								}
							}
						}
					}
				}
			}
		}
	}
	let var31: number;
	if (input[0] > 384.50000000000006) {
		if (input[84] > 1e-35) {
			var31 = -0.06088131453064195;
		} else {
			if (input[147] > 1e-35) {
				var31 = -0.05332792965930566;
			} else {
				if (input[135] > 1e-35) {
					if (input[9] > 32.50000000000001) {
						var31 = 0.04219361472548491;
					} else {
						var31 = -0.07227529211725771;
					}
				} else {
					if (input[10] > 4.500000000000001) {
						if (input[21] > 1e-35) {
							var31 = -0.0787279848043689;
						} else {
							if (input[17] > 1e-35) {
								if (input[3] > 18.500000000000004) {
									if (input[188] > 1e-35) {
										var31 = -0.054347604504400286;
									} else {
										if (input[0] > 3544.5000000000005) {
											if (input[0] > 5850.500000000001) {
												var31 = -0.11431764534511478;
											} else {
												var31 = 0.013549717238356157;
											}
										} else {
											var31 = -0.020987333767091276;
										}
									}
								} else {
									if (input[6] > 2.5000000000000004) {
										var31 = -0.02914877855133127;
									} else {
										var31 = 0.08483464900160231;
									}
								}
							} else {
								if (input[8] > 58.50000000000001) {
									if (input[183] > 1e-35) {
										var31 = -0.10087072787978416;
									} else {
										if (input[37] > 1e-35) {
											var31 = -0.030467397753331196;
										} else {
											if (input[229] > 1e-35) {
												var31 = -0.1017559811057469;
											} else {
												if (input[4] > 20.500000000000004) {
													var31 = -0.00413177742240167;
												} else {
													if (input[20] > 1e-35) {
														var31 = 0.05213315982685969;
													} else {
														var31 = 0.0037921635866823133;
													}
												}
											}
										}
									}
								} else {
									if (input[8] > 51.50000000000001) {
										var31 = 0.07327913092421544;
									} else {
										if (input[6] > 49.50000000000001) {
											var31 = -0.03457694284156811;
										} else {
											if (input[6] > 18.500000000000004) {
												if (input[7] > 17.500000000000004) {
													var31 = 0.02744420891894289;
												} else {
													var31 = 0.11288946357194463;
												}
											} else {
												var31 = 0.003482908820966248;
											}
										}
									}
								}
							}
						}
					} else {
						if (input[18] > 1e-35) {
							if (input[1] > 20.500000000000004) {
								if (input[7] > 4.500000000000001) {
									var31 = -0.012329314369909049;
								} else {
									var31 = 0.026816658655600168;
								}
							} else {
								var31 = -0.0872405354618811;
							}
						} else {
							var31 = 0.007872673500247845;
						}
					}
				}
			}
		}
	} else {
		if (input[1] > 42.50000000000001) {
			var31 = -0.04309044198258254;
		} else {
			if (input[145] > 1e-35) {
				var31 = 0.07572529147860785;
			} else {
				if (input[7] > 5.500000000000001) {
					var31 = -0.013837187093264945;
				} else {
					if (input[1] > 17.500000000000004) {
						var31 = 0.04208698439539668;
					} else {
						var31 = -0.06284346769019863;
					}
				}
			}
		}
	}
	let var32: number;
	if (input[294] > 1e-35) {
		var32 = -0.0384794324818203;
	} else {
		if (input[266] > 1e-35) {
			var32 = -0.1087205883821061;
		} else {
			if (input[32] > 1e-35) {
				if (input[8] > 2302.5000000000005) {
					var32 = 0.07432960094940501;
				} else {
					var32 = -0.035248735855751855;
				}
			} else {
				if (input[134] > 1e-35) {
					var32 = -0.02456191365284949;
				} else {
					if (input[121] > 1e-35) {
						if (input[0] > 4720.500000000001) {
							if (input[1] > 39.50000000000001) {
								var32 = -0.01706896375068821;
							} else {
								var32 = 0.08212247914968074;
							}
						} else {
							if (input[2] > 59.50000000000001) {
								var32 = -0.09546478958824225;
							} else {
								if (input[6] > 53.50000000000001) {
									var32 = 0.12317082897575611;
								} else {
									if (input[1] > 56.50000000000001) {
										if (input[4] > 7.500000000000001) {
											if (input[0] > 3560.5000000000005) {
												var32 = 0.02816463285971267;
											} else {
												var32 = 0.15449139016588445;
											}
										} else {
											var32 = -0.10199787406123524;
										}
									} else {
										var32 = -0.038068684323297096;
									}
								}
							}
						}
					} else {
						if (input[223] > 1e-35) {
							if (input[8] > 668.5000000000001) {
								var32 = -0.13924786681478077;
							} else {
								var32 = -0.0072772442570213335;
							}
						} else {
							if (input[39] > 1e-35) {
								var32 = -0.05392786531177836;
							} else {
								if (input[0] > 93.50000000000001) {
									if (input[40] > 1e-35) {
										var32 = -0.054059371343144036;
									} else {
										if (input[306] > 1e-35) {
											if (input[2] > 14.500000000000002) {
												if (input[149] > 1e-35) {
													var32 = -0.11174465335620831;
												} else {
													var32 = 0.00013144040097180107;
												}
											} else {
												var32 = -0.08493919336681105;
											}
										} else {
											if (input[42] > 1e-35) {
												var32 = -0.11078582572836196;
											} else {
												if (input[84] > 1e-35) {
													if (input[4] > 17.500000000000004) {
														var32 = -0.015540659878839153;
													} else {
														var32 = -0.14442609417300142;
													}
												} else {
													if (input[21] > 1e-35) {
														var32 = -0.025251979447574083;
													} else {
														var32 = 0.0023698372645272847;
													}
												}
											}
										}
									}
								} else {
									if (input[18] > 1e-35) {
										var32 = 0.07269739695712212;
									} else {
										if (input[8] > 2592.5000000000005) {
